digraph Tree {
node [shape=box, style="filled, rounded", color="black", fontname=helvetica] ;
edge [fontname=helvetica] ;
0 [label="Age <= 25.5\ngini = 0.833\nsamples = 18\nvalue = [3, 3, 3, 3, 3, 3]\nclass = Acoustic", fillcolor="#e5813900"] ;
1 [label="Gender <= 0.5\ngini = 0.5\nsamples = 6\nvalue = [0, 0, 3, 3, 0, 0]\nclass = Edm", fillcolor="#39e58100"] ;
0 -> 1 [labeldistance=2.5, labelangle=45, headlabel="True"] ;
2 [label="gini = 0.0\nsamples = 3\nvalue = [0, 0, 3, 0, 0, 0]\nclass = Edm", fillcolor="#39e581ff"] ;
1 -> 2 ;
3 [label="gini = 0.0\nsamples = 3\nvalue = [0, 0, 0, 3, 0, 0]\nclass = Grunge", fillcolor="#399de5ff"] ;
1 -> 3 ;
4 [label="Gender <= 0.5\ngini = 0.75\nsamples = 12\nvalue = [3, 3, 0, 0, 3, 3]\nclass = Acoustic", fillcolor="#e5813900"] ;
0 -> 4 [labeldistance=2.5, labelangle=-45, headlabel="False"] ;
5 [label="Age <= 30.5\ngini = 0.5\nsamples = 6\nvalue = [3, 0, 0, 0, 0, 3]\nclass = Acoustic", fillcolor="#e5813900"] ;
4 -> 5 ;
6 [label="gini = 0.0\nsamples = 3\nvalue = [3, 0, 0, 0, 0, 0]\nclass = Acoustic", fillcolor="#e58139ff"] ;
5 -> 6 ;
7 [label="gini = 0.0\nsamples = 3\nvalue = [0, 0, 0, 0, 0, 3]\nclass = Jazz", fillcolor="#e5399dff"] ;
5 -> 7 ;
8 [label="Age <= 30.5\ngini = 0.5\nsamples = 6\nvalue = [0, 3, 0, 0, 3, 0]\nclass = Classical", fillcolor="#9de53900"] ;
4 -> 8 ;
9 [label="gini = 0.0\nsamples = 3\nvalue = [0, 0, 0, 0, 3, 0]\nclass = HipHop", fillcolor="#8139e5ff"] ;
8 -> 9 ;
10 [label="gini = 0.0\nsamples = 3\nvalue = [0, 3, 0, 0, 0, 0]\nclass = Classical", fillcolor="#9de539ff"] ;
8 -> 10 ;
}